{"learner":{"attributes":{"best_iteration":"19","best_ntree_limit":"20","best_score":"0.04784282652788332","scikit_learn":"{\"use_label_encoder\": null, \"n_estimators\": 1000, \"objective\": \"binary:logistic\", \"max_depth\": 7, \"max_leaves\": null, \"max_bin\": null, \"grow_policy\": null, \"learning_rate\": 0.18987171911110778, \"verbosity\": 0, \"booster\": null, \"tree_method\": null, \"gamma\": 9.907202443859239, \"min_child_weight\": null, \"max_delta_step\": null, \"subsample\": 0.4650819039666218, \"sampling_method\": null, \"colsample_bytree\": 0.898433264334053, \"colsample_bylevel\": 0.48990184392992997, \"colsample_bynode\": null, \"reg_alpha\": 6.234999094198946, \"reg_lambda\": 1.5082101766142697, \"scale_pos_weight\": 3.8268572846654747, \"base_score\": null, \"missing\": NaN, \"num_parallel_tree\": null, \"random_state\": null, \"n_jobs\": 20, \"monotone_constraints\": null, \"interaction_constraints\": null, \"importance_type\": null, \"gpu_id\": null, \"validate_parameters\": null, \"predictor\": null, \"enable_categorical\": false, \"feature_types\": null, \"max_cat_to_onehot\": null, \"max_cat_threshold\": null, \"eval_metric\": null, \"early_stopping_rounds\": 10, \"callbacks\": null, \"kwargs\": {\"silent\": true}, \"classes_\": [0, 1], \"n_classes_\": 2, \"evals_result_\": {\"validation_0\": {\"logloss\": [0.537507004984952, 0.42189162935270214, 0.33824639745841467, 0.27721418369666, 0.2274129949836154, 0.19600383147685455, 0.1629896078968518, 0.1492245791030213, 0.1257570585787153, 0.10817732709850816, 0.0960792202227908, 0.08950396632792182, 0.0798837256469136, 0.07752900579245192, 0.07276072480103374, 0.06694695947613294, 0.0606885069797345, 0.05837341862410381, 0.05326892290308259, 0.04784282652788332, 0.04810703811374543, 0.04890299652089601, 0.04970521435172242, 0.04970521435172242, 0.04970521435172242, 0.04970521435172242, 0.04980901079122169, 0.04980901079122169, 0.04980901079122169, 0.05019362754593498]}}, \"_estimator_type\": \"classifier\"}"},"feature_names":["PFP(p=6,i=3)","PFP(p=11,i=2)","PFP(p=14,i=1)","PFP(p=14,i=2)","PFP(p=14,i=3)","PFP(p=18,i=2)","PFP(p=22,i=1)","PFP(p=35,i=1)","PFP(p=37,i=2)","PFP(p=38,i=1)","PFP(p=38,i=3)","PFP(p=39,i=2)","PFP(p=41,i=2)","PFP(p=41,i=3)","PFP(p=44,i=2)","PFP(p=46,i=1)","PFP(p=46,i=2)","PFP(p=46,i=3)","PFP(p=53,i=1)","PFP(p=53,i=2)","PFP(p=53,i=3)","PFP(p=60,i=1)","PFP(p=60,i=3)","PFP(p=70,i=3)","PFP(p=75,i=3)","PFP(p=77,i=2)","PFP(p=77,i=3)","PFP(p=79,i=1)","PFP(p=79,i=2)","PFP(p=79,i=3)","PFP(p=84,i=1)","PFP(p=84,i=2)","PFP(p=84,i=3)","PFP(p=86,i=3)","PFP(p=94,i=2)","PFP(p=101,i=2)","PFP(p=101,i=3)","PFP(p=102,i=1)","PFP(p=103,i=3)","PFP(p=132,i=2)","PFP(p=135,i=2)","PFP(p=139,i=1)","PFP(p=150,i=1)","PFP(p=150,i=2)","PFP(p=150,i=3)","PFP(p=154,i=1)","PFP(p=155,i=1)","PFP(p=155,i=3)","PFP(p=156,i=1)","PFP(p=157,i=3)","PFP(p=168,i=1)","PFP(p=168,i=2)","PFP(p=168,i=3)","PFP(p=177,i=1)","PFP(p=177,i=2)","PFP(p=200,i=1)","PFP(p=203,i=3)","PFP(p=206,i=1)","PFP(p=207,i=2)","PFP(p=207,i=3)","PFP(p=226,i=2)","PFP(p=228,i=3)","PFP(p=239,i=2)","PFP(p=246,i=1)","PFP(p=254,i=2)"],"feature_types":["float","float","float","float","float","float","float","float","float","float","float","float","float","float","float","float","float","float","float","float","float","float","float","float","float","float","float","float","float","float","float","float","float","float","float","float","float","float","float","float","float","float","float","float","float","float","float","float","float","float","float","float","float","float","float","float","float","float","float","float","float","float","float","float","float"],"gradient_booster":{"model":{"gbtree_model_param":{"num_parallel_tree":"1","num_trees":"30","size_leaf_vector":"0"},"tree_info":[0,0,0,0,0,0,0,0,0,0,0,0,0,0,0,0,0,0,0,0,0,0,0,0,0,0,0,0,0,0],"trees":[{"base_weights":[9.2789835E-1,-1.4959512E0,1.9413174E0,7.057756E-1,-1.8342721E0],"categories":[],"categories_nodes":[],"categories_segments":[],"categories_sizes":[],"default_left":[1,0,0,0,0],"id":0,"left_children":[1,3,-1,-1,-1],"loss_changes":[5.477151E2,5.6601868E1,0E0,0E0,0E0],"parents":[2147483647,0,0,1,1],"right_children":[2,4,-1,-1,-1],"split_conditions":[3.94E0,5.095E0,3.6860126E-1,1.3400683E-1,-3.482764E-1],"split_indices":[3,60,0,0,0],"split_type":[0,0,0,0,0],"sum_hessian":[2.1855515E2,6.2411533E1,1.5614362E2,5.640024E0,5.6771507E1],"tree_param":{"num_deleted":"0","num_feature":"65","num_nodes":"5","size_leaf_vector":"0"}},{"base_weights":[8.0658144E-1,-1.2933147E0,1.6257572E0,-1.5651677E0,5.5717766E-1,1.6641015E0,-0E0],"categories":[],"categories_nodes":[],"categories_segments":[],"categories_sizes":[],"default_left":[0,0,0,0,0,0,0],"id":1,"left_children":[1,3,5,-1,-1,-1,-1],"loss_changes":[4.297341E2,4.1785606E1,1.7065552E1,0E0,0E0,0E0,0E0],"parents":[2147483647,0,0,1,1,2,2],"right_children":[2,4,6,-1,-1,-1,-1],"split_conditions":[3.94E0,-4.24E0,1.3200001E1,-2.9718107E-1,1.0579228E-1,3.159658E-1,-0E0],"split_indices":[3,5,8,0,0,0,0],"split_type":[0,0,0,0,0,0,0],"sum_hessian":[2.4526195E2,6.6446655E1,1.788153E2,6.1075996E1,5.3706584E0,1.7676357E2,2.051735E0],"tree_param":{"num_deleted":"0","num_feature":"65","num_nodes":"7","size_leaf_vector":"0"}},{"base_weights":[7.2166616E-1,-9.98924E-1,1.3947823E0,-1.3617923E0,1.2418821E0,-0E0,1.4541398E0,-0E0,1.4679806E0],"categories":[],"categories_nodes":[],"categories_segments":[],"categories_sizes":[],"default_left":[0,1,0,0,0,0,1,1,1],"id":2,"left_children":[1,3,5,-1,-1,-1,-1,-1,-1],"loss_changes":[2.4761517E2,4.9878506E1,2.0182892E1,0E0,0E0,0E0,1.0574341E-1,0E0,0E0],"parents":[2147483647,0,0,1,1,2,2,6,6],"right_children":[2,4,6,-1,-1,-1,-1,-1,-1],"split_conditions":[3.94E0,2.895E0,-1.495E0,-2.5856584E-1,2.3579828E-1,-0E0,2.761E-1,-0E0,2.78728E-1],"split_indices":[3,58,26,0,0,0,62,2147483647,2147483647],"split_type":[0,0,0,0,0,0,0,0,0],"sum_hessian":[2.0834729E2,5.577774E1,1.5256955E2,5.0907993E1,4.869747E0,2.7771776E0,1.4979237E2,2.7905586E0,1.4700182E2],"tree_param":{"num_deleted":"2","num_feature":"65","num_nodes":"9","size_leaf_vector":"0"}},{"base_weights":[5.180633E-1,1.1571585E0,-1.225703E0,-8.183882E-1,1.3747689E0],"categories":[],"categories_nodes":[],"categories_segments":[],"categories_sizes":[],"default_left":[1,1,0,0,0],"id":3,"left_children":[1,3,-1,-1,-1],"loss_changes":[2.0304184E2,6.3458664E1,0E0,0E0,0E0],"parents":[2147483647,0,0,1,1],"right_children":[2,4,-1,-1,-1],"split_conditions":[1.5400001E0,-1.9200001E0,-2.3272634E-1,-1.5538877E-1,2.6102972E-1],"split_indices":[11,36,0,0,0],"split_type":[0,0,0,0,0],"sum_hessian":[1.7914877E2,1.3408807E2,4.5060696E1,1.0048459E1,1.2403962E2],"tree_param":{"num_deleted":"0","num_feature":"65","num_nodes":"5","size_leaf_vector":"0"}},{"base_weights":[4.3776456E-1,-1.150998E0,9.573029E-1,1.2495744E0,-8.067795E-1,-0E0,1.2994436E0],"categories":[],"categories_nodes":[],"categories_segments":[],"categories_sizes":[],"default_left":[0,0,1,0,0,0,0],"id":4,"left_children":[1,-1,3,5,-1,-1,-1],"loss_changes":[1.3428667E2,0E0,6.922718E1,1.0625839E1,0E0,0E0,0E0],"parents":[2147483647,0,0,2,2,3,3],"right_children":[2,-1,4,6,-1,-1,-1],"split_conditions":[-6.85E-1,-2.1854196E-1,-4.8E-1,1.57E0,-1.5318461E-1,-0E0,2.4672759E-1],"split_indices":[52,0,39,3,0,0,0],"split_type":[0,0,0,0,0,0,0],"sum_hessian":[1.606299E2,3.617416E1,1.24455734E2,1.1017615E2,1.4279584E1,2.1149468E0,1.080612E2],"tree_param":{"num_deleted":"0","num_feature":"65","num_nodes":"7","size_leaf_vector":"0"}},{"base_weights":[6.0502285E-1,1.0962117E0,-9.4972974E-1,-1.974306E-1,1.2125617E0,-1.0484993E0,-0E0],"categories":[],"categories_nodes":[],"categories_segments":[],"categories_sizes":[],"default_left":[0,0,1,0,0,1,1],"id":5,"left_children":[1,3,-1,-1,-1,-1,-1],"loss_changes":[1.3008238E2,2.6365585E1,5.6703453E0,0E0,0E0,0E0,0E0],"parents":[2147483647,0,0,1,1,2,2],"right_children":[2,4,-1,-1,-1,-1,-1],"split_conditions":[-1.75E0,-5.045E0,-1.8032682E-1,-3.7486486E-2,2.3023117E-1,-1.9908036E-1,-0E0],"split_indices":[19,2,10,0,0,2147483647,2147483647],"split_type":[0,0,0,0,0,0,0],"sum_hessian":[1.6557661E2,1.2921057E2,3.6366055E1,6.1534843E0,1.2305708E2,3.472447E1,1.6415856E0],"tree_param":{"num_deleted":"2","num_feature":"65","num_nodes":"7","size_leaf_vector":"0"}},{"base_weights":[4.4067824E-1,-7.2265977E-1,1.10861E0,4.140534E-1,-1.0376793E0],"categories":[],"categories_nodes":[],"categories_segments":[],"categories_sizes":[],"default_left":[0,0,0,0,0],"id":6,"left_children":[1,3,-1,-1,-1],"loss_changes":[1.0687383E2,2.1000425E1,0E0,0E0,0E0],"parents":[2147483647,0,0,1,1],"right_children":[2,4,-1,-1,-1],"split_conditions":[3.94E0,-3.92E0,2.1049368E-1,7.861703E-2,-1.9702595E-1],"split_indices":[3,16,0,0,0],"split_type":[0,0,0,0,0],"sum_hessian":[1.3138123E2,4.4469776E1,8.6911446E1,5.2519884E0,3.9217785E1],"tree_param":{"num_deleted":"0","num_feature":"65","num_nodes":"5","size_leaf_vector":"0"}},{"base_weights":[5.613264E-1,9.856477E-1,-9.2611206E-1,1.1221896E0,-1.923963E-1,1.1482226E0,-0E0],"categories":[],"categories_nodes":[],"categories_segments":[],"categories_sizes":[],"default_left":[1,1,0,1,0,1,1],"id":7,"left_children":[1,3,-1,-1,-1,-1,-1],"loss_changes":[8.78374E1,2.383564E1,0E0,4.6036987E0,0E0,0E0,0E0],"parents":[2147483647,0,0,1,1,3,3],"right_children":[2,4,-1,-1,-1,-1,-1],"split_conditions":[-2.395E0,3.5E-2,-1.7584248E-1,2.1307208E-1,-3.6530614E-2,2.1801499E-1,-0E0],"split_indices":[45,63,0,11,0,2147483647,2147483647],"split_type":[0,0,0,0,0,0,0],"sum_hessian":[1.3489235E2,1.0860982E2,2.6282536E1,1.0213587E2,6.4739466E0,1.00981285E2,1.154591E0],"tree_param":{"num_deleted":"2","num_feature":"65","num_nodes":"7","size_leaf_vector":"0"}},{"base_weights":[2.2569078E-1,-9.574307E-1,9.931171E-1],"categories":[],"categories_nodes":[],"categories_segments":[],"categories_sizes":[],"default_left":[0,0,0],"id":8,"left_children":[1,-1,-1],"loss_changes":[8.922571E1,0E0,0E0],"parents":[2147483647,0,0],"right_children":[2,-1,-1],"split_conditions":[3.94E0,-1.8178901E-1,1.8856484E-1],"split_indices":[3,0,0],"split_type":[0,0,0],"sum_hessian":[9.493797E1,3.4009075E1,6.0928894E1],"tree_param":{"num_deleted":"0","num_feature":"65","num_nodes":"3","size_leaf_vector":"0"}},{"base_weights":[1.4069067E-1,-8.8806206E-1,6.583904E-1,9.6239513E-1,-3.7634996E-1,1.0178471E0,-0E0],"categories":[],"categories_nodes":[],"categories_segments":[],"categories_sizes":[],"default_left":[0,0,1,1,0,1,1],"id":9,"left_children":[1,-1,3,-1,-1,-1,-1],"loss_changes":[4.4481026E1,0E0,2.3434353E1,4.301033E0,0E0,0E0,0E0],"parents":[2147483647,0,0,2,2,3,3],"right_children":[2,-1,4,-1,-1,-1,-1],"split_conditions":[-4.935E0,-1.6861786E-1,1.9100001E0,1.8273161E-1,-7.145821E-2,1.9326037E-1,-0E0],"split_indices":[42,0,11,45,0,2147483647,2147483647],"split_type":[0,0,0,0,0,0,0],"sum_hessian":[8.3043915E1,2.3407269E1,5.9636642E1,5.083309E1,8.803551E0,4.94369E1,1.3961903E0],"tree_param":{"num_deleted":"2","num_feature":"65","num_nodes":"7","size_leaf_vector":"0"}},{"base_weights":[4.1446304E-1,-7.9066426E-1,7.938273E-1,1.035557E0,-3.0584893E-1,1.0484822E0,-0E0],"categories":[],"categories_nodes":[],"categories_segments":[],"categories_sizes":[],"default_left":[0,0,1,0,0,1,1],"id":10,"left_children":[1,-1,3,-1,-1,-1,-1],"loss_changes":[4.219314E1,0E0,2.4505249E1,4.9181366E-1,0E0,0E0,0E0],"parents":[2147483647,0,0,2,2,3,3],"right_children":[2,-1,4,-1,-1,-1,-1],"split_conditions":[-4.935E0,-1.5012477E-1,-2.395E0,1.9662298E-1,-5.807206E-2,1.9907711E-1,-0E0],"split_indices":[42,0,45,43,0,2147483647,2147483647],"split_type":[0,0,0,0,0,0,0],"sum_hessian":[8.866763E1,1.6902584E1,7.176505E1,6.355274E1,8.212313E0,6.2405937E1,1.1468012E0],"tree_param":{"num_deleted":"2","num_feature":"65","num_nodes":"7","size_leaf_vector":"0"}},{"base_weights":[1.6289714E-1,-6.773636E-1,7.6967597E-1,-0E0,-7.7715737E-1,9.3451995E-1,-0E0],"categories":[],"categories_nodes":[],"categories_segments":[],"categories_sizes":[],"default_left":[1,0,0,1,1,1,1],"id":11,"left_children":[1,-1,-1,-1,-1,-1,-1],"loss_changes":[3.4497585E1,2.6710157E0,9.049597E0,0E0,0E0,0E0,0E0],"parents":[2147483647,0,0,1,1,2,2],"right_children":[2,-1,-1,-1,-1,-1,-1],"split_conditions":[3.815E0,-1.2861218E-1,1.461397E-1,-0E0,-1.475602E-1,1.774389E-1,-0E0],"split_indices":[47,53,43,2147483647,2147483647,2147483647,2147483647],"split_type":[0,0,0,0,0,0,0],"sum_hessian":[6.3482582E1,2.2237423E1,4.124516E1,1.2843523E0,2.0953072E1,3.785473E1,3.390428E0],"tree_param":{"num_deleted":"4","num_feature":"65","num_nodes":"7","size_leaf_vector":"0"}},{"base_weights":[3.598731E-1,-7.034883E-1,7.742025E-1,-0E0,9.5241785E-1,9.945742E-1,-0E0],"categories":[],"categories_nodes":[],"categories_segments":[],"categories_sizes":[],"default_left":[0,0,0,0,1,1,1],"id":12,"left_children":[1,-1,3,-1,-1,-1,-1],"loss_changes":[3.219963E1,0E0,1.2815735E1,0E0,3.1562462E0,0E0,0E0],"parents":[2147483647,0,0,2,2,4,4],"right_children":[2,-1,4,-1,-1,-1,-1],"split_conditions":[-4.935E0,-1.3357253E-1,1.975E0,-0E0,1.8083721E-1,1.888415E-1,-0E0],"split_indices":[42,0,29,0,11,2147483647,2147483647],"split_type":[0,0,0,0,0,0,0],"sum_hessian":[6.8710945E1,1.4751297E1,5.395965E1,4.687787E0,4.9271862E1,4.824911E1,1.022752E0],"tree_param":{"num_deleted":"2","num_feature":"65","num_nodes":"7","size_leaf_vector":"0"}},{"base_weights":[1.6235545E-1,7.393422E-1,-6.6955215E-1,-0E0,8.865548E-1],"categories":[],"categories_nodes":[],"categories_segments":[],"categories_sizes":[],"default_left":[1,1,0,1,1],"id":13,"left_children":[1,-1,-1,-1,-1],"loss_changes":[2.9136375E1,7.265688E0,0E0,0E0,0E0],"parents":[2147483647,0,0,1,1],"right_children":[2,-1,-1,-1,-1],"split_conditions":[-1.75E0,1.4038017E-1,-1.2712902E-1,-0E0,1.6833167E-1],"split_indices":[19,51,0,2147483647,2147483647],"split_type":[0,0,0,0,0],"sum_hessian":[5.6730644E1,3.8022198E1,1.8708447E1,2.793986E0,3.5228214E1],"tree_param":{"num_deleted":"2","num_feature":"65","num_nodes":"5","size_leaf_vector":"0"}},{"base_weights":[-0E0,5.7915646E-1,-7.23286E-1,7.739653E-1,-0E0],"categories":[],"categories_nodes":[],"categories_segments":[],"categories_sizes":[],"default_left":[0,0,0,1,1],"id":14,"left_children":[1,-1,-1,-1,-1],"loss_changes":[2.0926529E1,5.991455E0,0E0,0E0,0E0],"parents":[2147483647,0,0,1,1],"right_children":[2,-1,-1,-1,-1],"split_conditions":[-4.24E0,1.0996543E-1,-1.3733155E-1,1.4695412E-1,-0E0],"split_indices":[1,6,0,2147483647,2147483647],"split_type":[0,0,0,0,0],"sum_hessian":[4.871261E1,3.1174067E1,1.7538542E1,2.679427E1,4.379797E0],"tree_param":{"num_deleted":"2","num_feature":"65","num_nodes":"5","size_leaf_vector":"0"}},{"base_weights":[1.5013467E-1,5.9954953E-1,-6.0447806E-1,-0E0,8.47345E-1,8.637788E-1,-0E0],"categories":[],"categories_nodes":[],"categories_segments":[],"categories_sizes":[],"default_left":[0,0,0,0,0,1,1],"id":15,"left_children":[1,3,-1,-1,-1,-1,-1],"loss_changes":[1.862157E1,1.0679085E1,0E0,0E0,1.3780212E-1,0E0,0E0],"parents":[2147483647,0,0,1,1,4,4],"right_children":[2,4,-1,-1,-1,-1,-1],"split_conditions":[5.4350004E0,-4.935E0,-1.1477329E-1,-0E0,1.6088684E-1,1.6400717E-1,-0E0],"split_indices":[15,42,0,0,33,2147483647,2147483647],"split_type":[0,0,0,0,0,0,0],"sum_hessian":[5.187981E1,3.7887863E1,1.3991946E1,4.799124E0,3.3088737E1,3.1969503E1,1.1192348E0],"tree_param":{"num_deleted":"2","num_feature":"65","num_nodes":"7","size_leaf_vector":"0"}},{"base_weights":[2.0259286E-1,-4.7918677E-1,7.939651E-1,-0E0,-6.6353357E-1,8.317489E-1,-0E0],"categories":[],"categories_nodes":[],"categories_segments":[],"categories_sizes":[],"default_left":[1,1,0,1,1,1,1],"id":16,"left_children":[1,-1,-1,-1,-1,-1,-1],"loss_changes":[2.301841E1,3.026771E0,1.258524E0,0E0,0E0,0E0,0E0],"parents":[2147483647,0,0,1,1,2,2],"right_children":[2,-1,-1,-1,-1,-1,-1],"split_conditions":[1.57E0,-9.098402E-2,1.5075152E-1,-0E0,-1.2598625E-1,1.5792559E-1,-0E0],"split_indices":[58,60,2,2147483647,2147483647,2147483647,2147483647],"split_type":[0,0,0,0,0,0,0],"sum_hessian":[4.9292118E1,1.8131529E1,3.116059E1,2.52222E0,1.5609309E1,3.0079103E1,1.0814856E0],"tree_param":{"num_deleted":"4","num_feature":"65","num_nodes":"7","size_leaf_vector":"0"}},{"base_weights":[5.505165E-2,5.714254E-1,-5.138333E-1,-0E0,8.334407E-1,-6.457862E-1,-0E0],"categories":[],"categories_nodes":[],"categories_segments":[],"categories_sizes":[],"default_left":[0,0,1,1,1,1,1],"id":17,"left_children":[1,-1,-1,-1,-1,-1,-1],"loss_changes":[1.5002463E1,8.715969E0,2.1690946E0,0E0,0E0,0E0,0E0],"parents":[2147483647,0,0,1,1,2,2],"right_children":[2,-1,-1,-1,-1,-1,-1],"split_conditions":[-5.855E0,1.08497515E-1,-9.75624E-2,-0E0,1.5824682E-1,-1.2261654E-1,-0E0],"split_indices":[30,26,3,2147483647,2147483647,2147483647,2147483647],"split_type":[0,0,0,0,0,0,0],"sum_hessian":[4.6832863E1,3.02911E1,1.6541763E1,4.3034043E0,2.5987694E1,1.51202545E1,1.4215083E0],"tree_param":{"num_deleted":"4","num_feature":"65","num_nodes":"7","size_leaf_vector":"0"}},{"base_weights":[-0E0,-5.932572E-1,4.6963042E-1,-7.016149E-1,-0E0,5.708926E-1,-0E0],"categories":[],"categories_nodes":[],"categories_segments":[],"categories_sizes":[],"default_left":[1,1,0,1,1,1,1],"id":18,"left_children":[1,-1,-1,-1,-1,-1,-1],"loss_changes":[1.1141109E1,2.2406473E0,1.536313E0,0E0,0E0,0E0,0E0],"parents":[2147483647,0,0,1,1,2,2],"right_children":[2,-1,-1,-1,-1,-1,-1],"split_conditions":[1.4999986E-2,-1.1264276E-1,8.916953E-2,-1.3321683E-1,-0E0,1.0839635E-1,-0E0],"split_indices":[4,8,2,2147483647,2147483647,2147483647,2147483647],"split_type":[0,0,0,0,0,0,0],"sum_hessian":[3.5376266E1,1.8837835E1,1.653843E1,1.7590342E1,1.2474941E0,1.5417959E1,1.12047E0],"tree_param":{"num_deleted":"4","num_feature":"65","num_nodes":"7","size_leaf_vector":"0"}},{"base_weights":[-0E0,-5.9011436E-1,6.0595655E-1],"categories":[],"categories_nodes":[],"categories_segments":[],"categories_sizes":[],"default_left":[1,0,0],"id":19,"left_children":[1,-1,-1],"loss_changes":[1.2626274E1,0E0,0E0],"parents":[2147483647,0,0],"right_children":[2,-1,-1],"split_conditions":[3.94E0,-1.12046026E-1,1.1505401E-1],"split_indices":[3,0,0],"split_type":[0,0,0],"sum_hessian":[3.223588E1,1.5262883E1,1.6973E1],"tree_param":{"num_deleted":"0","num_feature":"65","num_nodes":"3","size_leaf_vector":"0"}},{"base_weights":[2.0765609E-1,6.8426293E-1,-4.5078972E-1,8.650407E-1,-0E0,-0E0,8.9360696E-1],"categories":[],"categories_nodes":[],"categories_segments":[],"categories_sizes":[],"default_left":[1,0,0,1,1,1,1],"id":20,"left_children":[1,-1,-1,-1,-1,-1,-1],"loss_changes":[1.4573476E1,6.281701E0,0E0,3.0300713E-1,0E0,0E0,0E0],"parents":[2147483647,0,0,1,1,3,3],"right_children":[2,-1,-1,-1,-1,-1,-1],"split_conditions":[-1.75E0,1.2992218E-1,-8.559222E-2,1.6424677E-1,-0E0,-0E0,1.6967069E-1],"split_indices":[19,27,0,2147483647,2147483647,2147483647,2147483647],"split_type":[0,0,0,0,0,0,0],"sum_hessian":[3.8809677E1,2.7972385E1,1.0837291E1,2.5332766E1,2.6396205E0,1.3091859E0,2.4023579E1],"tree_param":{"num_deleted":"4","num_feature":"65","num_nodes":"7","size_leaf_vector":"0"}},{"base_weights":[1.363448E-1,5.854745E-1,-2.8566447E-1,7.761617E-1,-0E0,-3.1970876E-1,-0E0,8.0869794E-1,-0E0],"categories":[],"categories_nodes":[],"categories_segments":[],"categories_sizes":[],"default_left":[0,1,1,1,1,1,1,1,1],"id":21,"left_children":[-1,-1,-1,-1,-1,-1,-1,-1,-1],"loss_changes":[8.638059E0,4.766698E0,1.2971997E-1,2.3332977E-1,0E0,0E0,0E0,0E0,0E0],"parents":[2147483647,0,0,1,1,2,2,3,3],"right_children":[-1,-1,-1,-1,-1,-1,-1,-1,-1],"split_conditions":[2.5888022E-2,1.1116505E-1,-5.42396E-2,1.4737114E-1,-0E0,-6.070365E-2,-0E0,1.5354887E-1,-0E0],"split_indices":[19,2147483647,2147483647,2147483647,2147483647,2147483647,2147483647,2147483647,2147483647],"split_type":[0,0,0,0,0,0,0,0,0],"sum_hessian":[3.2872944E1,2.2799057E1,1.0073887E1,2.0235092E1,2.5639644E0,9.007675E0,1.0662112E0,1.8877476E1,1.357617E0],"tree_param":{"num_deleted":"8","num_feature":"65","num_nodes":"9","size_leaf_vector":"0"}},{"base_weights":[1.327952E-1,-1.6410643E-1,6.841685E-1,-0E0,-3.7031344E-1],"categories":[],"categories_nodes":[],"categories_segments":[],"categories_sizes":[],"default_left":[1,1,1,1,1],"id":22,"left_children":[-1,-1,-1,-1,-1],"loss_changes":[8.430801E0,1.2065941E0,0E0,0E0,0E0],"parents":[2147483647,0,0,1,1],"right_children":[-1,-1,-1,-1,-1],"split_conditions":[2.5214052E-2,-3.1159168E-2,1.2990426E-1,-0E0,-7.0312046E-2],"split_indices":[58,2147483647,2147483647,2147483647,2147483647],"split_type":[0,0,0,0,0],"sum_hessian":[2.9150105E1,1.2285723E1,1.6864382E1,2.2862103E0,9.999513E0],"tree_param":{"num_deleted":"4","num_feature":"65","num_nodes":"5","size_leaf_vector":"0"}},{"base_weights":[-0E0,3.8195795E-1,-2.861161E-1,-0E0,6.1023414E-1],"categories":[],"categories_nodes":[],"categories_segments":[],"categories_sizes":[],"default_left":[1,1,1,1,1],"id":23,"left_children":[-1,-1,-1,-1,-1],"loss_changes":[3.643692E0,3.3568811E0,0E0,0E0,0E0],"parents":[2147483647,0,0,1,1],"right_children":[-1,-1,-1,-1,-1],"split_conditions":[-0E0,7.252301E-2,-5.4325353E-2,-0E0,1.158662E-1],"split_indices":[61,2147483647,2147483647,2147483647,2147483647],"split_type":[0,0,0,0,0],"sum_hessian":[2.6529879E1,1.7622997E1,8.906879E0,2.6215267E0,1.50014715E1],"tree_param":{"num_deleted":"4","num_feature":"65","num_nodes":"5","size_leaf_vector":"0"}},{"base_weights":[-0E0,-3.5782877E-1,4.941829E-1,-4.8161024E-1,-0E0,7.0977104E-1,-0E0],"categories":[],"categories_nodes":[],"categories_segments":[],"categories_sizes":[],"default_left":[0,1,1,1,1,1,1],"id":24,"left_children":[-1,-1,-1,-1,-1,-1,-1],"loss_changes":[7.1157866E0,1.0277166E0,4.0399857E0,0E0,0E0,0E0,0E0],"parents":[2147483647,0,0,1,1,2,2],"right_children":[-1,-1,-1,-1,-1,-1,-1],"split_conditions":[-0E0,-6.794156E-2,9.383136E-2,-9.1444165E-2,-0E0,1.3476545E-1,-0E0],"split_indices":[47,2147483647,2147483647,2147483647,2147483647,2147483647,2147483647],"split_type":[0,0,0,0,0,0,0],"sum_hessian":[3.35716E1,1.4154503E1,1.9417097E1,1.1568805E1,2.5856984E0,1.665525E1,2.7618473E0],"tree_param":{"num_deleted":"6","num_feature":"65","num_nodes":"7","size_leaf_vector":"0"}},{"base_weights":[-0E0,-4.411953E-1,2.4851635E-1,-0E0,4.6718204E-1],"categories":[],"categories_nodes":[],"categories_segments":[],"categories_sizes":[],"default_left":[0,1,1,1,1],"id":25,"left_children":[-1,-1,-1,-1,-1],"loss_changes":[3.354617E0,0E0,1.9964155E0,0E0,0E0],"parents":[2147483647,0,0,2,2],"right_children":[-1,-1,-1,-1,-1],"split_conditions":[-0E0,-8.3770506E-2,4.7186226E-2,-0E0,8.870465E-2],"split_indices":[4,2147483647,2147483647,2147483647,2147483647],"split_type":[0,0,0,0,0],"sum_hessian":[2.4995966E1,1.071638E1,1.4279587E1,2.1733508E0,1.21062355E1],"tree_param":{"num_deleted":"4","num_feature":"65","num_nodes":"5","size_leaf_vector":"0"}},{"base_weights":[1.6855948E-2,-2.4236232E-1,5.7680875E-1,-4.6504474E-1,-0E0,-0E0,6.513924E-1],"categories":[],"categories_nodes":[],"categories_segments":[],"categories_sizes":[],"default_left":[1,1,1,1,1,1,1],"id":26,"left_children":[-1,-1,-1,-1,-1,-1,-1],"loss_changes":[6.835538E0,1.8561684E0,1.0844016E0,0E0,0E0,0E0,0E0],"parents":[2147483647,0,0,1,1,2,2],"right_children":[-1,-1,-1,-1,-1,-1,-1],"split_conditions":[3.2004677E-3,-4.6017747E-2,1.0951967E-1,-8.829884E-2,-0E0,-0E0,1.23680994E-1],"split_indices":[58,2147483647,2147483647,2147483647,2147483647,2147483647,2147483647],"split_type":[0,0,0,0,0,0,0],"sum_hessian":[2.9765797E1,1.3320095E1,1.6445704E1,1.1102038E1,2.2180567E0,1.3203566E0,1.5125346E1],"tree_param":{"num_deleted":"6","num_feature":"65","num_nodes":"7","size_leaf_vector":"0"}},{"base_weights":[-0E0,5.6214815E-1,-2.9566243E-1,-0E0,6.748991E-1,-4.74354E-1,-0E0],"categories":[],"categories_nodes":[],"categories_segments":[],"categories_sizes":[],"default_left":[0,1,1,1,1,1,1],"id":27,"left_children":[-1,-1,-1,-1,-1,-1,-1],"loss_changes":[7.0557775E0,2.0153055E0,1.5910738E0,0E0,0E0,0E0,0E0],"parents":[2147483647,0,0,1,1,2,2],"right_children":[-1,-1,-1,-1,-1,-1,-1],"split_conditions":[-0E0,1.06736034E-1,-5.6137934E-2,-0E0,1.2814425E-1,-9.00664E-2,-0E0],"split_indices":[54,2147483647,2147483647,2147483647,2147483647,2147483647,2147483647],"split_type":[0,0,0,0,0,0,0],"sum_hessian":[2.9710672E1,1.684263E1,1.2868041E1,1.1948423E0,1.5647788E1,1.1147984E1,1.7200575E0],"tree_param":{"num_deleted":"6","num_feature":"65","num_nodes":"7","size_leaf_vector":"0"}},{"base_weights":[-0E0,-2.9976782E-1,5.493229E-1,-5.555033E-1,-0E0],"categories":[],"categories_nodes":[],"categories_segments":[],"categories_sizes":[],"default_left":[1,1,1,1,1],"id":28,"left_children":[-1,-1,-1,-1,-1],"loss_changes":[6.032744E0,2.9136176E0,0E0,0E0,0E0],"parents":[2147483647,0,0,1,1],"right_children":[-1,-1,-1,-1,-1],"split_conditions":[-0E0,-5.691743E-2,1.0430088E-1,-1.0547437E-1,-0E0],"split_indices":[58,2147483647,2147483647,2147483647,2147483647],"split_type":[0,0,0,0,0],"sum_hessian":[2.9098564E1,1.5755698E1,1.3342867E1,1.2960999E1,2.7946994E0],"tree_param":{"num_deleted":"4","num_feature":"65","num_nodes":"5","size_leaf_vector":"0"}},{"base_weights":[6.1885897E-2,5.1127565E-1,-3.5203463E-1,-0E0,7.760127E-1],"categories":[],"categories_nodes":[],"categories_segments":[],"categories_sizes":[],"default_left":[1,1,1,1,1],"id":29,"left_children":[-1,-1,-1,-1,-1],"loss_changes":[7.708226E0,5.708861E0,0E0,0E0,0E0],"parents":[2147483647,0,0,1,1],"right_children":[-1,-1,-1,-1,-1],"split_conditions":[1.1750381E-2,9.707678E-2,-6.6841416E-2,-0E0,1.4734286E-1],"split_indices":[61,2147483647,2147483647,2147483647,2147483647],"split_type":[0,0,0,0,0],"sum_hessian":[3.313425E1,2.2938581E1,1.0195669E1,4.354787E0,1.8583796E1],"tree_param":{"num_deleted":"4","num_feature":"65","num_nodes":"5","size_leaf_vector":"0"}}]},"name":"gbtree"},"learner_model_param":{"base_score":"5E-1","boost_from_average":"1","num_class":"0","num_feature":"65","num_target":"1"},"objective":{"name":"binary:logistic","reg_loss_param":{"scale_pos_weight":"3.82685733"}}},"version":[1,7,6]}