{"learner":{"attributes":{"best_iteration":"2","best_ntree_limit":"3","best_score":"0.16314093172671992","scikit_learn":"{\"use_label_encoder\": null, \"n_estimators\": 1000, \"objective\": \"binary:logistic\", \"max_depth\": 13, \"max_leaves\": null, \"max_bin\": null, \"grow_policy\": null, \"learning_rate\": 0.768274382817051, \"verbosity\": 0, \"booster\": null, \"tree_method\": null, \"gamma\": 1.5150596280330921, \"min_child_weight\": null, \"max_delta_step\": null, \"subsample\": 0.752467916507354, \"sampling_method\": null, \"colsample_bytree\": 0.9054748886871133, \"colsample_bylevel\": 0.8189220528085315, \"colsample_bynode\": null, \"reg_alpha\": 1.789066628800021, \"reg_lambda\": 1.966669981278939, \"scale_pos_weight\": 8.797351735712923, \"base_score\": null, \"missing\": NaN, \"num_parallel_tree\": null, \"random_state\": null, \"n_jobs\": 20, \"monotone_constraints\": null, \"interaction_constraints\": null, \"importance_type\": null, \"gpu_id\": null, \"validate_parameters\": null, \"predictor\": null, \"enable_categorical\": false, \"feature_types\": null, \"max_cat_to_onehot\": null, \"max_cat_threshold\": null, \"eval_metric\": null, \"early_stopping_rounds\": 10, \"callbacks\": null, \"kwargs\": {\"silent\": true}, \"classes_\": [0, 1], \"n_classes_\": 2, \"evals_result_\": {\"validation_0\": {\"logloss\": [0.3379445443424262, 0.2111109341879644, 0.16314093172671992, 0.1650597203685845, 0.17876781335271272, 0.20426719723245668, 0.20851700982653765, 0.19746717313902037, 0.20725305242621925, 0.22784101177209193, 0.2222384093986989, 0.22590883860931196, 0.24278006300911503]}}, \"_estimator_type\": \"classifier\"}"},"feature_names":["PFP(p=2,i=1)","PFP(p=2,i=2)","PFP(p=2,i=3)","PFP(p=4,i=3)","PFP(p=17,i=2)","PFP(p=17,i=3)","PFP(p=19,i=1)","PFP(p=19,i=3)","PFP(p=20,i=3)","PFP(p=21,i=2)","PFP(p=22,i=1)","PFP(p=22,i=3)","PFP(p=23,i=2)","PFP(p=23,i=3)","PFP(p=25,i=1)","PFP(p=25,i=3)","PFP(p=26,i=3)","PFP(p=32,i=2)","PFP(p=33,i=1)","PFP(p=36,i=1)","PFP(p=37,i=3)","PFP(p=39,i=2)","PFP(p=39,i=3)","PFP(p=41,i=3)","PFP(p=43,i=3)","PFP(p=46,i=1)","PFP(p=46,i=2)","PFP(p=50,i=2)","PFP(p=53,i=3)","PFP(p=56,i=2)","PFP(p=64,i=2)","PFP(p=64,i=3)","PFP(p=68,i=2)","PFP(p=70,i=1)","PFP(p=70,i=2)","PFP(p=70,i=3)","PFP(p=71,i=2)","PFP(p=71,i=3)","PFP(p=72,i=2)","PFP(p=74,i=1)","PFP(p=77,i=1)","PFP(p=77,i=2)","PFP(p=82,i=2)","PFP(p=87,i=2)","PFP(p=90,i=1)","PFP(p=93,i=1)","PFP(p=93,i=2)","PFP(p=93,i=3)","PFP(p=95,i=1)","PFP(p=95,i=2)","PFP(p=95,i=3)","PFP(p=96,i=2)","PFP(p=98,i=1)","PFP(p=98,i=2)","PFP(p=99,i=3)","PFP(p=102,i=2)","PFP(p=104,i=1)","PFP(p=104,i=2)","PFP(p=104,i=3)","PFP(p=116,i=2)","PFP(p=117,i=2)","PFP(p=117,i=3)","PFP(p=118,i=2)","PFP(p=118,i=3)","PFP(p=134,i=1)","PFP(p=134,i=2)","PFP(p=135,i=3)","PFP(p=147,i=3)","PFP(p=149,i=1)","PFP(p=149,i=3)","PFP(p=154,i=1)","PFP(p=154,i=3)","PFP(p=155,i=2)","PFP(p=156,i=1)","PFP(p=156,i=3)","PFP(p=170,i=1)","PFP(p=173,i=3)","PFP(p=192,i=1)","PFP(p=192,i=3)","PFP(p=195,i=2)","PFP(p=199,i=1)","PFP(p=199,i=3)","PFP(p=200,i=1)","PFP(p=202,i=2)","PFP(p=203,i=2)","PFP(p=212,i=1)","PFP(p=214,i=2)","PFP(p=214,i=3)","PFP(p=219,i=3)","PFP(p=222,i=3)","PFP(p=229,i=1)","PFP(p=229,i=3)","PFP(p=231,i=2)","PFP(p=243,i=2)","PFP(p=243,i=3)","PFP(p=246,i=3)","PFP(p=256,i=2)","PFP(p=256,i=3)","PFP(p=260,i=2)","PFP(p=261,i=1)","PFP(p=261,i=2)","PFP(p=261,i=3)"],"feature_types":["float","float","float","float","float","float","float","float","float","float","float","float","float","float","float","float","float","float","float","float","float","float","float","float","float","float","float","float","float","float","float","float","float","float","float","float","float","float","float","float","float","float","float","float","float","float","float","float","float","float","float","float","float","float","float","float","float","float","float","float","float","float","float","float","float","float","float","float","float","float","float","float","float","float","float","float","float","float","float","float","float","float","float","float","float","float","float","float","float","float","float","float","float","float","float","float","float","float","float","float","float","float"],"gradient_booster":{"model":{"gbtree_model_param":{"num_parallel_tree":"1","num_trees":"13","size_leaf_vector":"0"},"tree_info":[0,0,0,0,0,0,0,0,0,0,0,0,0],"trees":[{"base_weights":[1.8422973E0,-1.3380576E0,1.8926721E0,-1.8001204E0,1.0349436E0,-1.6768934E0,1.9232306E0,1.9457359E0,-1.5144342E0,1.9605E0,-1.3911955E0,1.9658961E0,-7.745106E-1,1.971307E0,-7.745106E-1,1.9766915E0,-0E0,-2.753854E-1,1.9794147E0,9.53333E-1,-7.745106E-1,1.9821397E0,-1.312998E-1,1.9834918E0,-0E0,1.9733946E-1,-0E0],"categories":[],"categories_nodes":[],"categories_segments":[],"categories_sizes":[],"default_left":[0,1,0,0,0,0,1,1,0,1,0,0,0,1,0,0,0,0,1,0,0,0,0,0,0,1,1],"id":0,"left_children":[1,3,5,-1,-1,-1,7,9,-1,11,-1,13,-1,15,-1,17,19,-1,21,-1,-1,23,-1,-1,-1,-1,-1],"loss_changes":[3.3470508E2,4.076945E1,2.2726416E2,0E0,0E0,0E0,1.6172461E2,1.0461328E2,0E0,3.444287E1,0E0,3.4559082E1,0E0,1.7872559E1,0E0,1.6231934E1,7.7699604E0,0E0,1.517334E1,0E0,0E0,1.8647461E0,0E0,0E0,1.236211E-1,0E0,0E0],"parents":[2147483647,0,0,1,1,2,2,6,6,7,7,9,9,11,11,13,13,15,15,16,16,18,18,21,21,24,24],"right_children":[2,4,6,-1,-1,-1,8,10,-1,12,-1,14,-1,16,-1,18,20,-1,22,-1,-1,24,-1,-1,-1,-1,-1],"split_conditions":[-3.315E0,2.5000003E-1,-2.65E0,-1.3829863E0,7.951206E-1,-1.2883142E0,1.355E0,5.15E-1,-1.163501E0,5.8E0,-1.0688199E0,5.9E0,-5.950367E-1,5.4350004E0,-5.950367E-1,-2.315E0,1.4999986E-2,-2.1157154E-1,2.5100002E0,7.3242134E-1,-5.950367E-1,6.900001E0,-1.0087427E-1,1.5238659E0,-0E0,1.5161085E-1,-0E0],"split_indices":[20,7,78,0,0,0,20,88,0,27,0,64,0,10,0,30,5,0,49,0,0,76,0,0,3,2147483647,2147483647],"split_type":[0,0,0,0,0,0,0,0,0,0,0,0,0,0,0,0,0,0,0,0,0,0,0,0,0,0,0],"sum_hessian":[2.0499216E3,3.0625534E1,2.019296E3,2.6662596E1,3.9629385E0,1.5743909E1,2.0035521E3,1.9918859E3,1.1666243E1,1.9844531E3,7.432747E0,1.9817504E3,2.702817E0,1.9790475E3,2.702817E0,1.9728441E3,6.203413E0,1.3514085E0,1.9714927E3,3.5005958E0,2.702817E0,1.969917E3,1.5757258E0,1.9677032E3,2.2137017E0,1.2077527E0,1.0059491E0],"tree_param":{"num_deleted":"2","num_feature":"102","num_nodes":"27","size_leaf_vector":"0"}},{"base_weights":[1.1472977E0,-7.3999846E-1,1.1714684E0,8.10728E-1,-2.5447564E0,1.2003745E0,-3.244842E-1,-4.656905E-1,-3.0959022E0,3.5404124E0,1.1791682E0,-1.0653676E0,8.112764E-1,-8.3172727E-1,1.193801E0,1.2076755E0,-8.3169204E-1,-6.278834E-1,1.2150453E0,-3.2035428E-1,1.2200507E0,1.2231877E0,-8.656478E-2,-0E0,1.2274454E0],"categories":[],"categories_nodes":[],"categories_segments":[],"categories_sizes":[],"default_left":[0,0,1,0,0,0,0,1,1,0,0,0,0,0,1,0,0,0,0,0,0,0,0,0,0],"id":1,"left_children":[1,3,5,-1,-1,9,11,-1,-1,-1,13,-1,-1,-1,15,17,-1,-1,19,-1,21,23,-1,-1,-1],"loss_changes":[6.400818E1,5.5649345E1,5.9996582E1,0E0,1.1231651E0,4.8343506E1,2.3740973E1,0E0,0E0,0E0,4.0904907E1,0E0,0E0,0E0,3.901416E1,1.9960327E1,0E0,0E0,1.2241455E1,0E0,7.491455E0,6.889282E0,0E0,0E0,0E0],"parents":[2147483647,0,0,1,1,2,2,4,4,5,5,6,6,10,10,14,14,15,15,18,18,20,20,21,21],"right_children":[2,4,6,-1,-1,10,12,-1,-1,-1,14,-1,-1,-1,16,18,-1,-1,20,-1,22,24,-1,-1,-1],"split_conditions":[-3.315E0,1.52E0,5.8E0,6.2286156E-1,-1.9550711E0,-5.855E0,-1.53E0,-3.5777807E-1,-2.3785024E0,2.7200081E0,-5.045E0,-8.184946E-1,6.2328285E-1,-6.3899475E-1,2.33E0,-4.24E0,-6.389677E-1,-4.823867E-1,-6.83E0,-2.4611999E-1,2.5100002E0,-3.315E0,-6.65055E-2,-0E0,9.430148E-1],"split_indices":[13,40,72,0,6,77,30,2147483647,2147483647,0,77,0,0,0,20,4,0,0,96,0,49,74,0,0,0],"split_type":[0,0,0,0,0,0,0,0,0,0,0,0,0,0,0,0,0,0,0,0,0,0,0,0,0],"sum_hessian":[1.3468976E3,1.5359179E1,1.3315383E3,8.310413E0,7.048765E0,1.3078514E3,2.3686861E1,2.9175391E0,4.131226E0,8.056932E0,1.2997946E3,1.5362588E1,8.324273E0,7.7133756E0,1.2920812E3,1.2849567E3,7.1244864E0,3.5056078E0,1.281451E3,2.599855E0,1.2788512E3,1.2772795E3,1.571724E0,4.286737E0,1.2729928E3],"tree_param":{"num_deleted":"2","num_feature":"102","num_nodes":"25","size_leaf_vector":"0"}},{"base_weights":[9.8012483E-1,1.0363781E0,-1.1717066E-1,-5.91187E-1,1.0529087E0,-1.1354176E0,8.785877E-1,-1.4012422E-1,1.0650457E0,3.5779363E-1,-1.1774406E0,1.9573519E0,1.0374829E0,1.0506704E0,-0E0,3.296186E-1,1.0699483E0,-6.436304E-1,5.2983874E-1,-1.4935971E0,8.861E-1,2.4207838E-1,1.084382E0,-1.3351918E0,8.1529015E-1,1.0883101E0,-0E0,1.0913632E0,-0E0],"categories":[],"categories_nodes":[],"categories_segments":[],"categories_sizes":[],"default_left":[1,0,1,0,0,0,0,0,1,0,0,0,1,0,0,0,0,0,0,0,0,0,1,0,0,0,0,0,0],"id":2,"left_children":[1,3,5,-1,7,-1,-1,9,11,-1,-1,-1,13,15,17,19,21,-1,-1,-1,-1,23,25,-1,-1,27,-1,-1,-1],"loss_changes":[4.867096E1,2.1495972E1,4.011849E1,0E0,1.2334656E1,0E0,0E0,6.1569324E0,8.154297E0,0E0,0E0,0E0,9.442932E0,6.36261E0,4.3405757E0,2.502195E1,5.0756226E0,0E0,0E0,0E0,0E0,1.5747155E1,4.2143555E0,0E0,0E0,2.9125977E0,0E0,0E0,0E0],"parents":[2147483647,0,0,1,1,2,2,4,4,7,7,8,8,12,12,13,13,14,14,15,15,16,16,21,21,22,22,25,25],"right_children":[2,4,6,-1,8,-1,-1,10,12,-1,-1,-1,14,16,18,20,22,-1,-1,-1,-1,24,26,-1,-1,28,-1,-1,-1],"split_conditions":[3.5E-2,-3.315E0,-4.835E0,-4.5419383E-1,-5.635E0,-8.7231225E-1,6.7499644E-1,9.536743E-7,-3.315E0,2.748837E-1,-9.0459746E-1,1.5037833E0,5.8E0,-2.335E0,4.2E-1,-1.48E0,-5.855E0,-4.9448472E-1,4.0706152E-1,-1.1474924E0,6.807679E-1,-3.745E0,6.17E0,-1.0257937E0,6.2636656E-1,6.26E0,-0E0,8.3846635E-1,-0E0],"split_indices":[73,78,99,0,42,0,0,1,66,0,0,0,93,26,11,15,82,0,0,0,0,96,19,0,0,68,0,0,0],"split_type":[0,0,0,0,0,0,0,0,0,0,0,0,0,0,0,0,0,0,0,0,0,0,0,0,0,0,0,0,0],"sum_hessian":[7.5601544E2,7.2080286E2,3.5212627E1,5.471726E0,7.153311E2,1.8161655E1,1.705097E1,5.5106225E0,7.098205E2,3.4285254E0,2.082097E0,1.5198208E1,6.9462225E2,6.8579956E2,8.822712E0,2.1201368E1,6.645982E2,3.721755E0,5.100957E0,3.4315727E0,1.7769796E1,1.4111507E1,6.504867E2,2.23264E0,1.1878867E1,6.493435E2,1.1431987E0,6.4814984E2,1.193634E0],"tree_param":{"num_deleted":"0","num_feature":"102","num_nodes":"29","size_leaf_vector":"0"}},{"base_weights":[8.6528194E-1,9.6406054E-1,2.2144699E-1,9.959687E-1,-4.7639754E-1,6.478142E-1,-1.0711828E0,-0E0,1.0243962E0,-5.9413534E-1,8.9440703E-1,-1.2076246E0,-0E0,5.518107E-1,-1.0529854E0,1.0342691E0,-0E0,-0E0,9.3099695E-1,1.0392715E0,-0E0],"categories":[],"categories_nodes":[],"categories_segments":[],"categories_sizes":[],"default_left":[1,1,0,0,0,0,1,0,1,0,0,0,0,0,0,1,0,1,1,1,1],"id":3,"left_children":[1,3,5,7,-1,9,11,13,15,-1,-1,-1,-1,-1,-1,-1,-1,-1,-1,-1,-1],"loss_changes":[2.091397E1,1.6421326E1,3.0378792E1,9.536957E0,0E0,1.4716518E1,2.0722141E0,7.2662373E0,4.6610107E0,0E0,1.0027409E0,0E0,0E0,0E0,0E0,6.130371E-1,0E0,0E0,0E0,0E0,0E0],"parents":[2147483647,0,0,1,1,2,2,3,3,5,5,6,6,7,7,8,8,10,10,15,15],"right_children":[2,4,6,8,-1,10,12,14,16,-1,-1,-1,-1,-1,-1,-1,-1,-1,-1,-1,-1],"split_conditions":[4.775E0,4.125E0,-4.7250004E0,-6.83E0,-3.6600402E-1,-2.21E0,1.8500006E-1,5.81E0,1.8800001E0,-4.5645896E-1,6.8715E-1,-9.27787E-1,-0E0,4.23942E-1,-8.089817E-1,7.9460245E-1,-0E0,-0E0,7.152611E-1,7.9844564E-1,-0E0],"split_indices":[53,10,10,9,0,13,1,14,49,0,24,0,0,0,0,20,0,2147483647,2147483647,2147483647,2147483647],"split_type":[0,0,0,0,0,0,0,0,0,0,0,0,0,0,0,0,0,0,0,0,0],"sum_hessian":[3.668362E2,3.1478436E2,5.2051853E1,3.0977136E2,5.0129886E0,4.0919785E1,1.11320715E1,7.9736037E0,3.0179776E2,5.11773E0,3.580205E1,9.76032E0,1.3717519E0,5.41372E0,2.5598836E0,3.0038333E2,1.4144217E0,1.753534E0,3.404852E1,2.9804736E2,2.3359866E0],"tree_param":{"num_deleted":"4","num_feature":"102","num_nodes":"21","size_leaf_vector":"0"}},{"base_weights":[7.097104E-1,-1.9319795E-1,8.569435E-1,4.2142037E-1,-8.028279E-1,9.135372E-1,-5.278175E-2,-1.2530547E-1,6.847227E-1,1.6243361E-1,-1.1463215E0,9.738388E-1,-0E0,1.743919E-1,-4.2767194E-1,-1.4644885E-2,9.9730873E-1,4.2319053E-1,-5.8708847E-1,-0E0,-5.659977E-1,1.0063224E0,-0E0],"categories":[],"categories_nodes":[],"categories_segments":[],"categories_sizes":[],"default_left":[0,0,1,0,0,1,1,0,0,0,0,0,0,1,1,0,1,0,0,1,1,1,1],"id":4,"left_children":[1,3,5,7,9,11,-1,-1,-1,-1,-1,15,17,-1,-1,-1,-1,-1,-1,-1,-1,-1,-1],"loss_changes":[2.6912369E1,1.1347677E1,1.01987E1,3.0579996E0,7.2779036E0,9.747421E0,1.4301485E0,0E0,0E0,0E0,0E0,5.262207E0,3.3216481E0,0E0,5.21013E-1,0E0,1.3031158E0,0E0,0E0,0E0,0E0,0E0,0E0],"parents":[2147483647,0,0,1,1,2,2,3,3,4,4,5,5,6,6,11,11,12,12,14,14,16,16],"right_children":[2,4,6,8,10,12,-1,-1,-1,-1,-1,16,18,-1,-1,-1,-1,-1,-1,-1,-1,-1,-1],"split_conditions":[-2.7649999E0,0E0,1.355E0,5.075E0,-3.92E0,4.295E0,-4.0550865E-2,-9.626898E-2,5.260549E-1,1.2479358E-1,-8.8068944E-1,-3.315E0,-2.4299998E0,1.3398083E-1,-3.2856938E-1,-1.125129E-2,7.6620674E-1,3.2512644E-1,-4.51045E-1,-0E0,-4.3484154E-1,7.7313167E-1,-0E0],"split_indices":[101,35,16,25,12,92,1,0,0,0,0,20,34,2147483647,2147483647,0,97,0,0,2147483647,2147483647,2147483647,2147483647],"split_type":[0,0,0,0,0,0,0,0,0,0,0,0,0,0,0,0,0,0,0,0,0,0,0],"sum_hessian":[1.8909445E2,2.4721899E1,1.6437254E2,1.115157E1,1.357033E1,1.5658952E2,7.783024E0,1.7512505E0,9.400319E0,2.466726E0,1.1103603E1,1.4783954E2,8.749983E0,2.5296767E0,5.2533474E0,1.6780171E0,1.4616153E2,4.3742685E0,4.375714E0,1.471435E0,3.7819123E0,1.4480663E2,1.3549073E0],"tree_param":{"num_deleted":"6","num_feature":"102","num_nodes":"23","size_leaf_vector":"0"}},{"base_weights":[6.155138E-1,-1.01023585E-1,7.841255E-1,-7.549809E-1,2.589187E-1,-0E0,8.747968E-1,5.9718895E-1,-8.6586624E-2,-6.474959E-1,3.4107342E-1,-1.7007416E-1,9.34663E-1,9.5937794E-1,-0E0,-0E0,9.664088E-1],"categories":[],"categories_nodes":[],"categories_segments":[],"categories_sizes":[],"default_left":[0,0,1,0,1,1,0,0,0,0,0,0,1,0,0,1,1],"id":5,"left_children":[1,3,5,-1,7,9,11,-1,-1,-1,-1,-1,13,-1,-1,-1,-1],"loss_changes":[1.3936481E1,5.8671308E0,7.2610703E0,0E0,2.4517403E0,2.9152021E0,6.615898E0,0E0,0E0,0E0,0E0,0E0,2.467781E0,5.1856995E-2,0E0,0E0,0E0],"parents":[2147483647,0,0,1,1,2,2,4,4,5,5,6,6,12,12,13,13],"right_children":[2,4,6,-1,8,10,12,-1,-1,-1,-1,-1,14,-1,-1,-1,-1],"split_conditions":[-9.2499995E-1,-1.53E0,-1.75E0,-5.8003247E-1,2.33E0,-2.585E0,-2.65E0,4.5880497E-1,-6.6522285E-2,-4.9745452E-1,2.6203796E-1,-1.3066362E-1,5.8E0,7.370655E-1,-0E0,-0E0,7.424671E-1],"split_indices":[8,30,26,0,91,101,78,0,0,0,0,0,72,20,0,2147483647,2147483647],"split_type":[0,0,0,0,0,0,0,0,0,0,0,0,0,0,0,0,0],"sum_hessian":[1.0198073E2,1.7555235E1,8.44255E1,7.230526E0,1.0324709E1,7.4924536E0,7.6933044E1,7.10954E0,3.2151692E0,3.2691274E0,4.223326E0,2.3533945E0,7.457965E1,7.336775E1,1.2118924E0,1.0366551E0,7.23311E1],"tree_param":{"num_deleted":"2","num_feature":"102","num_nodes":"17","size_leaf_vector":"0"}},{"base_weights":[3.4122816E-1,6.145996E-1,-2.7579907E-1,7.3456055E-1,-4.2337978E-1,4.951503E-2,-7.2211134E-1,-1.2612568E-3,8.4484565E-1,-5.585903E-1,5.6365037E-1,-0E0,-9.1142845E-1,-0E0,-2.7374777E-1,-0E0,8.9956534E-1],"categories":[],"categories_nodes":[],"categories_segments":[],"categories_sizes":[],"default_left":[1,1,1,0,0,0,0,0,0,0,0,0,0,1,1,0,0],"id":6,"left_children":[1,3,5,7,-1,9,11,-1,15,-1,-1,-1,-1,-1,-1,-1,-1],"loss_changes":[1.1921024E1,7.1120377E0,4.081126E0,5.16737E0,0E0,3.9755285E0,2.408216E0,3.3742285E-1,1.7606182E0,0E0,0E0,0E0,0E0,0E0,0E0,0E0,0E0],"parents":[2147483647,0,0,1,1,2,2,3,3,5,5,6,6,7,7,8,8],"right_children":[2,4,6,8,-1,10,12,-1,16,-1,-1,-1,-1,-1,-1,-1,-1],"split_conditions":[-1.365E0,1.355E0,8.75E-1,-9.2499995E-1,-3.2527184E-1,-3.745E0,-1.27E0,-9.6899125E-4,-3.315E0,-4.291506E-1,4.3303815E-1,-0E0,-7.0022714E-1,-0E0,-2.103134E-1,-0E0,6.91113E-1],"split_indices":[50,20,43,8,0,96,16,8,7,0,0,0,0,2147483647,2147483647,0,0],"split_type":[0,0,0,0,0,0,0,0,0,0,0,0,0,0,0,0,0],"sum_hessian":[6.313697E1,4.576722E1,1.7369751E1,4.3086178E1,2.6810439E0,8.73951E0,8.630241E0,3.7549758E0,3.93312E1,2.3317602E0,6.407749E0,1.0460471E0,7.584194E0,1.2188216E0,2.5361543E0,2.6957078E0,3.6635494E1],"tree_param":{"num_deleted":"2","num_feature":"102","num_nodes":"17","size_leaf_vector":"0"}},{"base_weights":[2.7587852E-1,5.4445994E-1,-3.222368E-1,-1.7260133E-1,7.528514E-1,-7.6246053E-1,2.6198972E-2,-3.5282508E-1,-0E0,-0E0,8.276657E-1,-0E0,2.5687987E-1,-0E0,8.476291E-1],"categories":[],"categories_nodes":[],"categories_segments":[],"categories_sizes":[],"default_left":[1,0,0,1,0,0,0,1,1,0,1,1,1,1,1],"id":7,"left_children":[1,3,5,-1,9,-1,-1,-1,-1,-1,-1,-1,-1,-1,-1],"loss_changes":[7.1887083E0,5.8493757E0,3.136777E0,4.6692917E-1,2.3475008E0,0E0,3.267099E-1,0E0,0E0,0E0,1.06903076E-1,0E0,0E0,0E0,0E0],"parents":[2147483647,0,0,1,1,2,2,3,3,4,4,6,6,10,10],"right_children":[2,4,6,-1,10,-1,-1,-1,-1,-1,-1,-1,-1,-1,-1],"split_conditions":[6.17E0,-2.7649999E0,-2.6500002E-1,-1.3260518E-1,-3.315E0,-5.857789E-1,2.0127999E-2,-2.7106646E-1,-0E0,-0E0,6.3587433E-1,-0E0,1.9735421E-1,-0E0,6.512117E-1],"split_indices":[14,101,74,13,78,0,38,2147483647,2147483647,0,56,2147483647,2147483647,2147483647,2147483647],"split_type":[0,0,0,0,0,0,0,0,0,0,0,0,0,0,0],"sum_hessian":[3.8160244E1,2.852072E1,9.6395235E0,4.565112E0,2.3955608E1,5.494858E0,4.144666E0,3.3473525E0,1.2177597E0,1.047668E0,2.290794E1,1.0966619E0,3.0480042E0,1.0091088E0,2.1898832E1],"tree_param":{"num_deleted":"6","num_feature":"102","num_nodes":"15","size_leaf_vector":"0"}},{"base_weights":[9.044742E-2,-3.4565768E-1,4.0391502E-1,-5.682887E-1,-0E0,-1.5694408E-1,6.363691E-1,-0E0,-7.1519244E-1,-0E0,-2.0101549E-1,-0E0,7.318939E-1],"categories":[],"categories_nodes":[],"categories_segments":[],"categories_sizes":[],"default_left":[1,0,0,1,0,1,0,1,1,1,1,1,1],"id":8,"left_children":[1,3,5,-1,-1,-1,-1,-1,-1,-1,-1,-1,-1],"loss_changes":[4.663621E0,1.858831E0,3.8610332E0,1.1342037E0,0E0,4.4800952E-2,1.2156034E0,0E0,0E0,0E0,0E0,0E0,0E0],"parents":[2147483647,0,0,1,1,2,2,3,3,5,5,6,6],"right_children":[2,4,6,-1,-1,-1,-1,-1,-1,-1,-1,-1,-1],"split_conditions":[-2.725E0,-6.85E-1,-1.53E0,-4.3660164E-1,-0E0,-1.2057611E-1,4.889061E-1,-0E0,-5.49464E-1,-0E0,-1.5443505E-1,-0E0,5.622953E-1],"split_indices":[9,54,30,97,0,82,13,2147483647,2147483647,2147483647,2147483647,2147483647,2147483647],"split_type":[0,0,0,0,0,0,0,0,0,0,0,0,0],"sum_hessian":[2.9376886E1,9.814029E0,1.9562857E1,8.147463E0,1.666566E0,3.6642559E0,1.5898602E1,1.5108442E0,6.6366186E0,1.0896888E0,2.574567E0,2.0898023E0,1.38088E1],"tree_param":{"num_deleted":"6","num_feature":"102","num_nodes":"13","size_leaf_vector":"0"}},{"base_weights":[-0E0,2.8827646E-1,-5.346002E-1,-0E0,4.7394603E-1,-8.470515E-1,-0E0,-1.1490647E-1,-0E0,-0E0,6.610139E-1,-0E0,-9.966555E-1],"categories":[],"categories_nodes":[],"categories_segments":[],"categories_sizes":[],"default_left":[1,0,1,1,0,1,0,1,1,0,0,1,1],"id":9,"left_children":[1,3,5,-1,9,-1,-1,-1,-1,-1,-1,-1,-1],"loss_changes":[4.6350923E0,1.6554106E0,2.9170218E0,5.3724244E-2,2.062698E0,1.0483232E0,0E0,0E0,0E0,0E0,0E0,0E0,0E0],"parents":[2147483647,0,0,1,1,2,2,3,3,4,4,5,5],"right_children":[2,4,6,-1,10,-1,-1,-1,-1,-1,-1,-1,-1],"split_conditions":[2.17E0,-1.31E0,-2.21E0,-0E0,-2.335E0,-6.50768E-1,-0E0,-8.8279694E-2,-0E0,-0E0,5.0784004E-1,-0E0,-7.657049E-1],"split_indices":[59,77,24,99,26,58,0,2147483647,2147483647,0,0,2147483647,2147483647],"split_type":[0,0,0,0,0,0,0,0,0,0,0,0,0],"sum_hessian":[2.4152744E1,1.4767107E1,9.385637E0,3.173199E0,1.1593908E1,6.620806E0,2.7648313E0,2.1022706E0,1.0709285E0,1.8684735E0,9.725435E0,1.329202E0,5.2916045E0],"tree_param":{"num_deleted":"4","num_feature":"102","num_nodes":"13","size_leaf_vector":"0"}},{"base_weights":[-6.2641345E-2,1.1228741E-1,-5.7862103E-1,4.588545E-1,-6.155797E-2,-0E0,-6.9762015E-1,-0E0,5.1256514E-1,-2.5352404E-1,-0E0,-0E0,-7.752611E-1,-3.8655165E-1,-0E0],"categories":[],"categories_nodes":[],"categories_segments":[],"categories_sizes":[],"default_left":[1,1,1,1,0,1,1,1,1,1,1,1,1,1,1],"id":10,"left_children":[1,3,-1,-1,-1,-1,-1,-1,-1,-1,-1,-1,-1,-1,-1],"loss_changes":[2.9432812E0,1.6971993E0,7.089846E-1,1.5606916E-1,4.3495554E-1,0E0,1.1152148E-1,0E0,0E0,3.783228E-1,0E0,0E0,0E0,0E0,0E0],"parents":[2147483647,0,0,1,1,2,2,3,3,4,4,6,6,9,9],"right_children":[2,4,-1,-1,-1,-1,-1,-1,-1,-1,-1,-1,-1,-1,-1],"split_conditions":[-5.7000005E-1,-4.7250004E0,-4.445397E-1,3.5252616E-1,-4.729341E-2,-0E0,-5.3596365E-1,-0E0,3.9379066E-1,-1.9477601E-1,-0E0,-0E0,-5.9561324E-1,-2.9697773E-1,-0E0],"split_indices":[49,10,71,38,54,2147483647,2147483647,2147483647,2147483647,2147483647,2147483647,2147483647,2147483647,2147483647,2147483647],"split_type":[0,0,0,0,0,0,0,0,0,0,0,0,0,0,0],"sum_hessian":[1.9983341E1,1.3483497E1,6.499845E0,6.864922E0,6.618574E0,1.1852673E0,5.3145776E0,1.1598682E0,5.705054E0,5.3066463E0,1.3119279E0,1.1998267E0,4.1147513E0,3.6938756E0,1.6127707E0],"tree_param":{"num_deleted":"10","num_feature":"102","num_nodes":"15","size_leaf_vector":"0"}},{"base_weights":[-4.858344E-2,-3.4730512E-1,2.334674E-1,-0E0,-6.0011774E-1,-0E0,4.6182865E-1,1.3012465E-3,-3.8709734E-2,-0E0,-1.7336838E-1],"categories":[],"categories_nodes":[],"categories_segments":[],"categories_sizes":[],"default_left":[0,1,0,1,1,1,1,1,1,1,1],"id":11,"left_children":[1,-1,-1,-1,-1,-1,-1,-1,-1,-1,-1],"loss_changes":[2.0285673E0,1.0571347E0,1.0321563E0,8.33323E-3,0E0,0E0,0E0,0E0,1.2655284E-1,0E0,0E0],"parents":[2147483647,0,0,1,1,2,2,3,3,8,8],"right_children":[2,-1,-1,-1,-1,-1,-1,-1,-1,-1,-1],"split_conditions":[5.075E0,-2.6682562E-1,1.7936702E-1,-0E0,-4.6105507E-1,-0E0,3.548111E-1,9.997142E-4,-2.9739697E-2,-0E0,-1.3319448E-1],"split_indices":[75,64,26,2147483647,2147483647,2147483647,2147483647,2147483647,2147483647,2147483647,2147483647],"split_type":[0,0,0,0,0,0,0,0,0,0,0],"sum_hessian":[1.7800032E1,1.1504068E1,6.295964E0,6.023699E0,5.4803696E0,1.3117318E0,4.984232E0,2.4340837E0,3.589615E0,1.0687969E0,2.5208182E0],"tree_param":{"num_deleted":"8","num_feature":"102","num_nodes":"11","size_leaf_vector":"0"}},{"base_weights":[2.3102345E-1,4.6755502E-1,-0E0,-0E0,5.8456254E-1,-2.6289442E-1,6.0862496E-2],"categories":[],"categories_nodes":[],"categories_segments":[],"categories_sizes":[],"default_left":[0,0,0,1,1,1,1],"id":12,"left_children":[1,-1,-1,-1,-1,-1,-1],"loss_changes":[1.517582E0,9.590802E-1,4.1015518E-1,0E0,0E0,0E0,0E0],"parents":[2147483647,0,0,1,1,2,2],"right_children":[2,-1,-1,-1,-1,-1,-1],"split_conditions":[-1.53E0,3.5921052E-1,-0E0,-0E0,4.4910443E-1,-2.0197505E-1,4.6759095E-2],"split_indices":[41,26,39,2147483647,2147483647,2147483647,2147483647],"split_type":[0,0,0,0,0,0,0],"sum_hessian":[1.517663E1,9.160803E0,6.015827E0,1.202103E0,7.9587E0,3.7404912E0,2.2753363E0],"tree_param":{"num_deleted":"4","num_feature":"102","num_nodes":"7","size_leaf_vector":"0"}}]},"name":"gbtree"},"learner_model_param":{"base_score":"5E-1","boost_from_average":"1","num_class":"0","num_feature":"102","num_target":"1"},"objective":{"name":"binary:logistic","reg_loss_param":{"scale_pos_weight":"8.79735184"}}},"version":[1,7,6]}